<?xml version="1.0" encoding="UTF-8"?>
<PMML version="4.2" xmlns="http://www.dmg.org/PMML-4_2">
  <Header copyright="dani">
    <Application name="KNIME" version="2.7.2"/>
  </Header>
  <DataDictionary numberOfFields="7">
    <DataField name="nom_nivell" optype="categorical" dataType="string">
      <Value value="ESO"/>
      <Value value="CFGS Admin"/>
      <Value value="BTX"/>
      <Value value="Alumnes x Classificar"/>
      <Value value="CFGS Inform"/>
      <Value value="CFGM Admin"/>
      <Value value="CFGM Infor"/>
    </DataField>
    <DataField name="hora_inici" optype="categorical" dataType="string">
      <Value value="09:15:00"/>
      <Value value="10:30:00"/>
      <Value value="18:05:00"/>
      <Value value="19:00:00"/>
      <Value value="16:45:00"/>
      <Value value="19:55:00"/>
      <Value value="14:45:00"/>
      <Value value="15:45:00"/>
      <Value value="08:15:00"/>
      <Value value="12:45:00"/>
      <Value value="11:30:00"/>
      <Value value="13:45:00"/>
    </DataField>
    <DataField name="assistenciaMateixaHora1WeekBefore" optype="categorical" dataType="string">
      <Value value="Present"/>
      <Value value="Absent"/>
      <Value value="NA"/>
    </DataField>
    <DataField name="assistenciaMateixaHora2WeekBefore" optype="categorical" dataType="string">
      <Value value="NA"/>
      <Value value="Present"/>
      <Value value="Absent"/>
    </DataField>
    <DataField name="assistenciaMateixaHora3WeekBefore" optype="categorical" dataType="string">
      <Value value="NA"/>
      <Value value="Present"/>
      <Value value="Absent"/>
    </DataField>
    <DataField name="assistenciaaHoraAnterior" optype="categorical" dataType="string">
      <Value value="Present"/>
      <Value value="Absent"/>
      <Value value="NA"/>
    </DataField>
    <DataField name="assistencia" optype="categorical" dataType="string">
      <Value value="Present"/>
      <Value value="Absent"/>
      <Value value="NA"/>
    </DataField>
  </DataDictionary>
  <TreeModel modelName="DecisionTree" functionName="classification" splitCharacteristic="multiSplit" missingValueStrategy="lastPrediction" noTrueChildStrategy="returnNullPrediction">
    <MiningSchema>
      <MiningField name="nom_nivell" invalidValueTreatment="asIs"/>
      <MiningField name="hora_inici" invalidValueTreatment="asIs"/>
      <MiningField name="assistenciaMateixaHora1WeekBefore" invalidValueTreatment="asIs"/>
      <MiningField name="assistenciaMateixaHora2WeekBefore" invalidValueTreatment="asIs"/>
      <MiningField name="assistenciaMateixaHora3WeekBefore" invalidValueTreatment="asIs"/>
      <MiningField name="assistenciaaHoraAnterior" invalidValueTreatment="asIs"/>
      <MiningField name="assistencia" invalidValueTreatment="asIs" usageType="predicted"/>
    </MiningSchema>
    <Node id="0" score="Present" recordCount="921060.0">
      <True/>
      <ScoreDistribution value="Present" recordCount="827214.0"/>
      <ScoreDistribution value="Absent" recordCount="93846.0"/>
      <Node id="1" score="Present" recordCount="323547.0">
        <SimplePredicate field="assistenciaaHoraAnterior" operator="equal" value="Present"/>
        <ScoreDistribution value="Present" recordCount="318171.0"/>
        <ScoreDistribution value="Absent" recordCount="5376.0"/>
        <Node id="1408" score="Present" recordCount="59219.0">
          <SimplePredicate field="hora_inici" operator="equal" value="09:15:00"/>
          <ScoreDistribution value="Present" recordCount="58660.0"/>
          <ScoreDistribution value="Absent" recordCount="559.0"/>
        </Node>
        <Node id="1407" score="Present" recordCount="61063.0">
          <SimplePredicate field="hora_inici" operator="equal" value="10:30:00"/>
          <ScoreDistribution value="Present" recordCount="60134.0"/>
          <ScoreDistribution value="Absent" recordCount="929.0"/>
          <Node id="1410" score="Present" recordCount="47736.0">
            <SimplePredicate field="assistenciaMateixaHora1WeekBefore" operator="equal" value="Present"/>
            <ScoreDistribution value="Present" recordCount="47126.0"/>
            <ScoreDistribution value="Absent" recordCount="610.0"/>
            <Node id="1432" score="Present" recordCount="10562.0">
              <SimplePredicate field="assistenciaMateixaHora3WeekBefore" operator="equal" value="NA"/>
              <ScoreDistribution value="Present" recordCount="10418.0"/>
              <ScoreDistribution value="Absent" recordCount="144.0"/>
            </Node>
            <Node id="1461" score="Present" recordCount="34558.0">
              <SimplePredicate field="assistenciaMateixaHora3WeekBefore" operator="equal" value="Present"/>
              <ScoreDistribution value="Present" recordCount="34165.0"/>
              <ScoreDistribution value="Absent" recordCount="393.0"/>
              <Node id="1527" score="Present" recordCount="23723.0">
                <SimplePredicate field="nom_nivell" operator="equal" value="ESO"/>
                <ScoreDistribution value="Present" recordCount="23500.0"/>
                <ScoreDistribution value="Absent" recordCount="223.0"/>
              </Node>
              <Node id="1608" score="Present" recordCount="6827.0">
                <SimplePredicate field="nom_nivell" operator="equal" value="BTX"/>
                <ScoreDistribution value="Present" recordCount="6731.0"/>
                <ScoreDistribution value="Absent" recordCount="96.0"/>
              </Node>
              <Node id="1629" score="Present" recordCount="27.0">
                <SimplePredicate field="nom_nivell" operator="equal" value="Alumnes x Classificar"/>
                <ScoreDistribution value="Present" recordCount="25.0"/>
                <ScoreDistribution value="Absent" recordCount="2.0"/>
                <Node id="1630" score="Present" recordCount="4.0">
                  <SimplePredicate field="assistenciaMateixaHora2WeekBefore" operator="equal" value="NA"/>
                  <ScoreDistribution value="Present" recordCount="4.0"/>
                  <ScoreDistribution value="Absent" recordCount="0.0"/>
                </Node>
                <Node id="1631" score="Present" recordCount="22.0">
                  <SimplePredicate field="assistenciaMateixaHora2WeekBefore" operator="equal" value="Present"/>
                  <ScoreDistribution value="Present" recordCount="21.0"/>
                  <ScoreDistribution value="Absent" recordCount="1.0"/>
                </Node>
                <Node id="1632" score="Absent" recordCount="1.0">
                  <SimplePredicate field="assistenciaMateixaHora2WeekBefore" operator="equal" value="Absent"/>
                  <ScoreDistribution value="Present" recordCount="0.0"/>
                  <ScoreDistribution value="Absent" recordCount="1.0"/>
                </Node>
              </Node>
              <Node id="1635" score="Present" recordCount="1736.0">
                <SimplePredicate field="nom_nivell" operator="equal" value="CFGM Admin"/>
                <ScoreDistribution value="Present" recordCount="1704.0"/>
                <ScoreDistribution value="Absent" recordCount="32.0"/>
              </Node>
              <Node id="1634" score="Present" recordCount="2245.0">
                <SimplePredicate field="nom_nivell" operator="equal" value="CFGM Infor"/>
                <ScoreDistribution value="Present" recordCount="2205.0"/>
                <ScoreDistribution value="Absent" recordCount="40.0"/>
              </Node>
            </Node>
            <Node id="1642" score="Present" recordCount="2616.0">
              <SimplePredicate field="assistenciaMateixaHora3WeekBefore" operator="equal" value="Absent"/>
              <ScoreDistribution value="Present" recordCount="2543.0"/>
              <ScoreDistribution value="Absent" recordCount="73.0"/>
            </Node>
          </Node>
          <Node id="1667" score="Present" recordCount="3816.0">
            <SimplePredicate field="assistenciaMateixaHora1WeekBefore" operator="equal" value="Absent"/>
            <ScoreDistribution value="Present" recordCount="3621.0"/>
            <ScoreDistribution value="Absent" recordCount="195.0"/>
            <Node id="1669" score="Present" recordCount="355.0">
              <SimplePredicate field="assistenciaMateixaHora2WeekBefore" operator="equal" value="NA"/>
              <ScoreDistribution value="Present" recordCount="334.0"/>
              <ScoreDistribution value="Absent" recordCount="21.0"/>
              <Node id="1670" score="Present" recordCount="159.0">
                <SimplePredicate field="assistenciaMateixaHora3WeekBefore" operator="equal" value="NA"/>
                <ScoreDistribution value="Present" recordCount="153.0"/>
                <ScoreDistribution value="Absent" recordCount="6.0"/>
              </Node>
              <Node id="1678" score="Present" recordCount="168.0">
                <SimplePredicate field="assistenciaMateixaHora3WeekBefore" operator="equal" value="Present"/>
                <ScoreDistribution value="Present" recordCount="160.0"/>
                <ScoreDistribution value="Absent" recordCount="8.0"/>
                <Node id="1679" score="Present" recordCount="121.0">
                  <SimplePredicate field="nom_nivell" operator="equal" value="ESO"/>
                  <ScoreDistribution value="Present" recordCount="115.0"/>
                  <ScoreDistribution value="Absent" recordCount="6.0"/>
                </Node>
                <Node id="1681" score="Present" recordCount="25.0">
                  <SimplePredicate field="nom_nivell" operator="equal" value="BTX"/>
                  <ScoreDistribution value="Present" recordCount="25.0"/>
                  <ScoreDistribution value="Absent" recordCount="0.0"/>
                </Node>
                <Node id="1682" score="Absent" recordCount="1.0">
                  <SimplePredicate field="nom_nivell" operator="equal" value="Alumnes x Classificar"/>
                  <ScoreDistribution value="Present" recordCount="0.0"/>
                  <ScoreDistribution value="Absent" recordCount="1.0"/>
                </Node>
                <Node id="1684" score="Present" recordCount="16.0">
                  <SimplePredicate field="nom_nivell" operator="equal" value="CFGM Admin"/>
                  <ScoreDistribution value="Present" recordCount="15.0"/>
                  <ScoreDistribution value="Absent" recordCount="1.0"/>
                </Node>
                <Node id="1685" score="Present" recordCount="5.0">
                  <SimplePredicate field="nom_nivell" operator="equal" value="CFGM Infor"/>
                  <ScoreDistribution value="Present" recordCount="5.0"/>
                  <ScoreDistribution value="Absent" recordCount="0.0"/>
                </Node>
              </Node>
              <Node id="1686" score="Present" recordCount="28.0">
                <SimplePredicate field="assistenciaMateixaHora3WeekBefore" operator="equal" value="Absent"/>
                <ScoreDistribution value="Present" recordCount="21.0"/>
                <ScoreDistribution value="Absent" recordCount="7.0"/>
              </Node>
            </Node>
            <Node id="1694" score="Present" recordCount="2934.0">
              <SimplePredicate field="assistenciaMateixaHora2WeekBefore" operator="equal" value="Present"/>
              <ScoreDistribution value="Present" recordCount="2848.0"/>
              <ScoreDistribution value="Absent" recordCount="86.0"/>
              <Node id="1696" score="Present" recordCount="351.0">
                <SimplePredicate field="assistenciaMateixaHora3WeekBefore" operator="equal" value="NA"/>
                <ScoreDistribution value="Present" recordCount="333.0"/>
                <ScoreDistribution value="Absent" recordCount="18.0"/>
              </Node>
              <Node id="1704" score="Present" recordCount="2332.0">
                <SimplePredicate field="assistenciaMateixaHora3WeekBefore" operator="equal" value="Present"/>
                <ScoreDistribution value="Present" recordCount="2276.0"/>
                <ScoreDistribution value="Absent" recordCount="56.0"/>
              </Node>
              <Node id="1712" score="Present" recordCount="251.0">
                <SimplePredicate field="assistenciaMateixaHora3WeekBefore" operator="equal" value="Absent"/>
                <ScoreDistribution value="Present" recordCount="239.0"/>
                <ScoreDistribution value="Absent" recordCount="12.0"/>
                <Node id="1713" score="Present" recordCount="151.0">
                  <SimplePredicate field="nom_nivell" operator="equal" value="ESO"/>
                  <ScoreDistribution value="Present" recordCount="144.0"/>
                  <ScoreDistribution value="Absent" recordCount="7.0"/>
                </Node>
                <Node id="1715" score="Present" recordCount="29.0">
                  <SimplePredicate field="nom_nivell" operator="equal" value="BTX"/>
                  <ScoreDistribution value="Present" recordCount="28.0"/>
                  <ScoreDistribution value="Absent" recordCount="1.0"/>
                </Node>
                <Node id="1716" score="Absent" recordCount="1.0">
                  <SimplePredicate field="nom_nivell" operator="equal" value="Alumnes x Classificar"/>
                  <ScoreDistribution value="Present" recordCount="0.0"/>
                  <ScoreDistribution value="Absent" recordCount="1.0"/>
                </Node>
                <Node id="1718" score="Present" recordCount="38.0">
                  <SimplePredicate field="nom_nivell" operator="equal" value="CFGM Admin"/>
                  <ScoreDistribution value="Present" recordCount="37.0"/>
                  <ScoreDistribution value="Absent" recordCount="1.0"/>
                </Node>
                <Node id="1719" score="Present" recordCount="32.0">
                  <SimplePredicate field="nom_nivell" operator="equal" value="CFGM Infor"/>
                  <ScoreDistribution value="Present" recordCount="30.0"/>
                  <ScoreDistribution value="Absent" recordCount="2.0"/>
                </Node>
              </Node>
            </Node>
            <Node id="1720" score="Present" recordCount="527.0">
              <SimplePredicate field="assistenciaMateixaHora2WeekBefore" operator="equal" value="Absent"/>
              <ScoreDistribution value="Present" recordCount="439.0"/>
              <ScoreDistribution value="Absent" recordCount="88.0"/>
            </Node>
          </Node>
          <Node id="1745" score="Present" recordCount="9511.0">
            <SimplePredicate field="assistenciaMateixaHora1WeekBefore" operator="equal" value="NA"/>
            <ScoreDistribution value="Present" recordCount="9387.0"/>
            <ScoreDistribution value="Absent" recordCount="124.0"/>
            <Node id="1746" score="Present" recordCount="1856.0">
              <SimplePredicate field="assistenciaMateixaHora3WeekBefore" operator="equal" value="NA"/>
              <ScoreDistribution value="Present" recordCount="1823.0"/>
              <ScoreDistribution value="Absent" recordCount="33.0"/>
            </Node>
            <Node id="1771" score="Present" recordCount="7178.0">
              <SimplePredicate field="assistenciaMateixaHora3WeekBefore" operator="equal" value="Present"/>
              <ScoreDistribution value="Present" recordCount="7107.0"/>
              <ScoreDistribution value="Absent" recordCount="71.0"/>
              <Node id="1772" score="Present" recordCount="4931.0">
                <SimplePredicate field="nom_nivell" operator="equal" value="ESO"/>
                <ScoreDistribution value="Present" recordCount="4883.0"/>
                <ScoreDistribution value="Absent" recordCount="48.0"/>
              </Node>
              <Node id="1777" score="Present" recordCount="1417.0">
                <SimplePredicate field="nom_nivell" operator="equal" value="BTX"/>
                <ScoreDistribution value="Present" recordCount="1403.0"/>
                <ScoreDistribution value="Absent" recordCount="14.0"/>
              </Node>
              <Node id="1781" score="Present" recordCount="8.0">
                <SimplePredicate field="nom_nivell" operator="equal" value="Alumnes x Classificar"/>
                <ScoreDistribution value="Present" recordCount="6.0"/>
                <ScoreDistribution value="Absent" recordCount="2.0"/>
                <Node id="1782" score="Present" recordCount="3.0">
                  <SimplePredicate field="assistenciaMateixaHora2WeekBefore" operator="equal" value="NA"/>
                  <ScoreDistribution value="Present" recordCount="3.0"/>
                  <ScoreDistribution value="Absent" recordCount="0.0"/>
                </Node>
                <Node id="1783" score="Present" recordCount="4.0">
                  <SimplePredicate field="assistenciaMateixaHora2WeekBefore" operator="equal" value="Present"/>
                  <ScoreDistribution value="Present" recordCount="3.0"/>
                  <ScoreDistribution value="Absent" recordCount="1.0"/>
                </Node>
                <Node id="1784" score="Absent" recordCount="1.0">
                  <SimplePredicate field="assistenciaMateixaHora2WeekBefore" operator="equal" value="Absent"/>
                  <ScoreDistribution value="Present" recordCount="0.0"/>
                  <ScoreDistribution value="Absent" recordCount="1.0"/>
                </Node>
              </Node>
              <Node id="1786" score="Present" recordCount="358.0">
                <SimplePredicate field="nom_nivell" operator="equal" value="CFGM Admin"/>
                <ScoreDistribution value="Present" recordCount="355.0"/>
                <ScoreDistribution value="Absent" recordCount="3.0"/>
              </Node>
              <Node id="1790" score="Present" recordCount="464.0">
                <SimplePredicate field="nom_nivell" operator="equal" value="CFGM Infor"/>
                <ScoreDistribution value="Present" recordCount="460.0"/>
                <ScoreDistribution value="Absent" recordCount="4.0"/>
              </Node>
            </Node>
            <Node id="1794" score="Present" recordCount="477.0">
              <SimplePredicate field="assistenciaMateixaHora3WeekBefore" operator="equal" value="Absent"/>
              <ScoreDistribution value="Present" recordCount="457.0"/>
              <ScoreDistribution value="Absent" recordCount="20.0"/>
            </Node>
          </Node>
        </Node>
        <Node id="1819" score="Present" recordCount="7547.0">
          <SimplePredicate field="hora_inici" operator="equal" value="18:05:00"/>
          <ScoreDistribution value="Present" recordCount="7056.0"/>
          <ScoreDistribution value="Absent" recordCount="491.0"/>
          <Node id="1820" score="Present" recordCount="5211.0">
            <SimplePredicate field="assistenciaMateixaHora1WeekBefore" operator="equal" value="Present"/>
            <ScoreDistribution value="Present" recordCount="4935.0"/>
            <ScoreDistribution value="Absent" recordCount="276.0"/>
          </Node>
          <Node id="1879" score="Present" recordCount="1130.0">
            <SimplePredicate field="assistenciaMateixaHora1WeekBefore" operator="equal" value="Absent"/>
            <ScoreDistribution value="Present" recordCount="998.0"/>
            <ScoreDistribution value="Absent" recordCount="132.0"/>
            <Node id="1881" score="Present" recordCount="198.0">
              <SimplePredicate field="assistenciaMateixaHora3WeekBefore" operator="equal" value="NA"/>
              <ScoreDistribution value="Present" recordCount="155.0"/>
              <ScoreDistribution value="Absent" recordCount="43.0"/>
            </Node>
            <Node id="1925" score="Present" recordCount="770.0">
              <SimplePredicate field="assistenciaMateixaHora3WeekBefore" operator="equal" value="Present"/>
              <ScoreDistribution value="Present" recordCount="718.0"/>
              <ScoreDistribution value="Absent" recordCount="52.0"/>
            </Node>
            <Node id="1984" score="Present" recordCount="162.0">
              <SimplePredicate field="assistenciaMateixaHora3WeekBefore" operator="equal" value="Absent"/>
              <ScoreDistribution value="Present" recordCount="125.0"/>
              <ScoreDistribution value="Absent" recordCount="37.0"/>
              <Node id="1986" score="Present" recordCount="14.0">
                <SimplePredicate field="assistenciaMateixaHora2WeekBefore" operator="equal" value="NA"/>
                <ScoreDistribution value="Present" recordCount="8.0"/>
                <ScoreDistribution value="Absent" recordCount="6.0"/>
                <Node id="1988" score="Present" recordCount="4.0">
                  <SimplePredicate field="nom_nivell" operator="equal" value="CFGS Admin"/>
                  <ScoreDistribution value="Present" recordCount="2.0"/>
                  <ScoreDistribution value="Absent" recordCount="2.0"/>
                </Node>
                <Node id="1992" score="Absent" recordCount="4.0">
                  <SimplePredicate field="nom_nivell" operator="equal" value="CFGM Admin"/>
                  <ScoreDistribution value="Present" recordCount="1.0"/>
                  <ScoreDistribution value="Absent" recordCount="3.0"/>
                </Node>
                <Node id="1993" score="Present" recordCount="6.0">
                  <SimplePredicate field="nom_nivell" operator="equal" value="CFGM Infor"/>
                  <ScoreDistribution value="Present" recordCount="5.0"/>
                  <ScoreDistribution value="Absent" recordCount="1.0"/>
                </Node>
              </Node>
              <Node id="1994" score="Present" recordCount="96.0">
                <SimplePredicate field="assistenciaMateixaHora2WeekBefore" operator="equal" value="Present"/>
                <ScoreDistribution value="Present" recordCount="86.0"/>
                <ScoreDistribution value="Absent" recordCount="10.0"/>
              </Node>
              <Node id="2014" score="Present" recordCount="52.0">
                <SimplePredicate field="assistenciaMateixaHora2WeekBefore" operator="equal" value="Absent"/>
                <ScoreDistribution value="Present" recordCount="31.0"/>
                <ScoreDistribution value="Absent" recordCount="21.0"/>
                <Node id="2017" score="Absent" recordCount="17.0">
                  <SimplePredicate field="nom_nivell" operator="equal" value="CFGS Admin"/>
                  <ScoreDistribution value="Present" recordCount="8.0"/>
                  <ScoreDistribution value="Absent" recordCount="9.0"/>
                </Node>
                <Node id="2020" score="Present" recordCount="9.0">
                  <SimplePredicate field="nom_nivell" operator="equal" value="CFGS Inform"/>
                  <ScoreDistribution value="Present" recordCount="6.0"/>
                  <ScoreDistribution value="Absent" recordCount="3.0"/>
                </Node>
                <Node id="2021" score="Present" recordCount="14.0">
                  <SimplePredicate field="nom_nivell" operator="equal" value="CFGM Admin"/>
                  <ScoreDistribution value="Present" recordCount="10.0"/>
                  <ScoreDistribution value="Absent" recordCount="4.0"/>
                </Node>
                <Node id="2022" score="Present" recordCount="12.0">
                  <SimplePredicate field="nom_nivell" operator="equal" value="CFGM Infor"/>
                  <ScoreDistribution value="Present" recordCount="7.0"/>
                  <ScoreDistribution value="Absent" recordCount="5.0"/>
                </Node>
              </Node>
            </Node>
          </Node>
          <Node id="2023" score="Present" recordCount="1206.0">
            <SimplePredicate field="assistenciaMateixaHora1WeekBefore" operator="equal" value="NA"/>
            <ScoreDistribution value="Present" recordCount="1123.0"/>
            <ScoreDistribution value="Absent" recordCount="83.0"/>
          </Node>
        </Node>
        <Node id="2120" score="Present" recordCount="7420.0">
          <SimplePredicate field="hora_inici" operator="equal" value="19:00:00"/>
          <ScoreDistribution value="Present" recordCount="7230.0"/>
          <ScoreDistribution value="Absent" recordCount="190.0"/>
        </Node>
        <Node id="2370" score="Present" recordCount="5797.0">
          <SimplePredicate field="hora_inici" operator="equal" value="16:45:00"/>
          <ScoreDistribution value="Present" recordCount="5638.0"/>
          <ScoreDistribution value="Absent" recordCount="159.0"/>
        </Node>
        <Node id="2592" score="Present" recordCount="3623.0">
          <SimplePredicate field="hora_inici" operator="equal" value="19:55:00"/>
          <ScoreDistribution value="Present" recordCount="3380.0"/>
          <ScoreDistribution value="Absent" recordCount="243.0"/>
          <Node id="2607" score="Present" recordCount="1798.0">
            <SimplePredicate field="nom_nivell" operator="equal" value="CFGS Admin"/>
            <ScoreDistribution value="Present" recordCount="1628.0"/>
            <ScoreDistribution value="Absent" recordCount="170.0"/>
            <Node id="2608" score="Present" recordCount="428.0">
              <SimplePredicate field="assistenciaMateixaHora3WeekBefore" operator="equal" value="NA"/>
              <ScoreDistribution value="Present" recordCount="384.0"/>
              <ScoreDistribution value="Absent" recordCount="44.0"/>
              <Node id="2609" score="Present" recordCount="185.0">
                <SimplePredicate field="assistenciaMateixaHora2WeekBefore" operator="equal" value="NA"/>
                <ScoreDistribution value="Present" recordCount="159.0"/>
                <ScoreDistribution value="Absent" recordCount="26.0"/>
              </Node>
              <Node id="2613" score="Present" recordCount="204.0">
                <SimplePredicate field="assistenciaMateixaHora2WeekBefore" operator="equal" value="Present"/>
                <ScoreDistribution value="Present" recordCount="192.0"/>
                <ScoreDistribution value="Absent" recordCount="12.0"/>
              </Node>
              <Node id="2617" score="Present" recordCount="39.0">
                <SimplePredicate field="assistenciaMateixaHora2WeekBefore" operator="equal" value="Absent"/>
                <ScoreDistribution value="Present" recordCount="33.0"/>
                <ScoreDistribution value="Absent" recordCount="6.0"/>
                <Node id="2618" score="Present" recordCount="25.0">
                  <SimplePredicate field="assistenciaMateixaHora1WeekBefore" operator="equal" value="Present"/>
                  <ScoreDistribution value="Present" recordCount="21.0"/>
                  <ScoreDistribution value="Absent" recordCount="4.0"/>
                </Node>
                <Node id="2619" score="Present" recordCount="13.0">
                  <SimplePredicate field="assistenciaMateixaHora1WeekBefore" operator="equal" value="Absent"/>
                  <ScoreDistribution value="Present" recordCount="12.0"/>
                  <ScoreDistribution value="Absent" recordCount="1.0"/>
                </Node>
                <Node id="2620" score="Absent" recordCount="1.0">
                  <SimplePredicate field="assistenciaMateixaHora1WeekBefore" operator="equal" value="NA"/>
                  <ScoreDistribution value="Present" recordCount="0.0"/>
                  <ScoreDistribution value="Absent" recordCount="1.0"/>
                </Node>
              </Node>
            </Node>
            <Node id="2621" score="Present" recordCount="1071.0">
              <SimplePredicate field="assistenciaMateixaHora3WeekBefore" operator="equal" value="Present"/>
              <ScoreDistribution value="Present" recordCount="986.0"/>
              <ScoreDistribution value="Absent" recordCount="85.0"/>
            </Node>
            <Node id="2634" score="Present" recordCount="299.0">
              <SimplePredicate field="assistenciaMateixaHora3WeekBefore" operator="equal" value="Absent"/>
              <ScoreDistribution value="Present" recordCount="258.0"/>
              <ScoreDistribution value="Absent" recordCount="41.0"/>
            </Node>
          </Node>
          <Node id="2649" score="Present" recordCount="1033.0">
            <SimplePredicate field="nom_nivell" operator="equal" value="CFGS Inform"/>
            <ScoreDistribution value="Present" recordCount="991.0"/>
            <ScoreDistribution value="Absent" recordCount="42.0"/>
          </Node>
          <Node id="2683" score="Present" recordCount="358.0">
            <SimplePredicate field="nom_nivell" operator="equal" value="CFGM Admin"/>
            <ScoreDistribution value="Present" recordCount="353.0"/>
            <ScoreDistribution value="Absent" recordCount="5.0"/>
          </Node>
          <Node id="2708" score="Present" recordCount="434.0">
            <SimplePredicate field="nom_nivell" operator="equal" value="CFGM Infor"/>
            <ScoreDistribution value="Present" recordCount="408.0"/>
            <ScoreDistribution value="Absent" recordCount="26.0"/>
          </Node>
        </Node>
        <Node id="2727" score="Present" recordCount="100.0">
          <SimplePredicate field="hora_inici" operator="equal" value="14:45:00"/>
          <ScoreDistribution value="Present" recordCount="94.0"/>
          <ScoreDistribution value="Absent" recordCount="6.0"/>
          <Node id="2728" score="Present" recordCount="71.0">
            <SimplePredicate field="assistenciaMateixaHora1WeekBefore" operator="equal" value="Present"/>
            <ScoreDistribution value="Present" recordCount="70.0"/>
            <ScoreDistribution value="Absent" recordCount="1.0"/>
          </Node>
          <Node id="2742" score="Present" recordCount="11.0">
            <SimplePredicate field="assistenciaMateixaHora1WeekBefore" operator="equal" value="Absent"/>
            <ScoreDistribution value="Present" recordCount="9.0"/>
            <ScoreDistribution value="Absent" recordCount="2.0"/>
            <Node id="2743" score="Absent" recordCount="1.0">
              <SimplePredicate field="assistenciaMateixaHora2WeekBefore" operator="equal" value="NA"/>
              <ScoreDistribution value="Present" recordCount="0.0"/>
              <ScoreDistribution value="Absent" recordCount="1.0"/>
            </Node>
            <Node id="2744" score="Present" recordCount="8.0">
              <SimplePredicate field="assistenciaMateixaHora2WeekBefore" operator="equal" value="Present"/>
              <ScoreDistribution value="Present" recordCount="7.0"/>
              <ScoreDistribution value="Absent" recordCount="1.0"/>
            </Node>
            <Node id="2752" score="Present" recordCount="2.0">
              <SimplePredicate field="assistenciaMateixaHora2WeekBefore" operator="equal" value="Absent"/>
              <ScoreDistribution value="Present" recordCount="2.0"/>
              <ScoreDistribution value="Absent" recordCount="0.0"/>
            </Node>
          </Node>
          <Node id="2753" score="Present" recordCount="18.0">
            <SimplePredicate field="assistenciaMateixaHora1WeekBefore" operator="equal" value="NA"/>
            <ScoreDistribution value="Present" recordCount="15.0"/>
            <ScoreDistribution value="Absent" recordCount="3.0"/>
            <Node id="2754" score="Present" recordCount="8.0">
              <SimplePredicate field="assistenciaMateixaHora2WeekBefore" operator="equal" value="NA"/>
              <ScoreDistribution value="Present" recordCount="7.0"/>
              <ScoreDistribution value="Absent" recordCount="1.0"/>
            </Node>
            <Node id="2762" score="Present" recordCount="9.0">
              <SimplePredicate field="assistenciaMateixaHora2WeekBefore" operator="equal" value="Present"/>
              <ScoreDistribution value="Present" recordCount="8.0"/>
              <ScoreDistribution value="Absent" recordCount="1.0"/>
            </Node>
            <Node id="2766" score="Absent" recordCount="1.0">
              <SimplePredicate field="assistenciaMateixaHora2WeekBefore" operator="equal" value="Absent"/>
              <ScoreDistribution value="Present" recordCount="0.0"/>
              <ScoreDistribution value="Absent" recordCount="1.0"/>
            </Node>
          </Node>
        </Node>
        <Node id="2767" score="Present" recordCount="5265.0">
          <SimplePredicate field="hora_inici" operator="equal" value="15:45:00"/>
          <ScoreDistribution value="Present" recordCount="5177.0"/>
          <ScoreDistribution value="Absent" recordCount="88.0"/>
          <Node id="2768" score="Present" recordCount="1326.0">
            <SimplePredicate field="assistenciaMateixaHora3WeekBefore" operator="equal" value="NA"/>
            <ScoreDistribution value="Present" recordCount="1298.0"/>
            <ScoreDistribution value="Absent" recordCount="28.0"/>
            <Node id="2769" score="Present" recordCount="511.0">
              <SimplePredicate field="assistenciaMateixaHora2WeekBefore" operator="equal" value="NA"/>
              <ScoreDistribution value="Present" recordCount="504.0"/>
              <ScoreDistribution value="Absent" recordCount="7.0"/>
            </Node>
            <Node id="2787" score="Present" recordCount="743.0">
              <SimplePredicate field="assistenciaMateixaHora2WeekBefore" operator="equal" value="Present"/>
              <ScoreDistribution value="Present" recordCount="729.0"/>
              <ScoreDistribution value="Absent" recordCount="14.0"/>
            </Node>
            <Node id="2812" score="Present" recordCount="72.0">
              <SimplePredicate field="assistenciaMateixaHora2WeekBefore" operator="equal" value="Absent"/>
              <ScoreDistribution value="Present" recordCount="65.0"/>
              <ScoreDistribution value="Absent" recordCount="7.0"/>
              <Node id="2813" score="Present" recordCount="54.0">
                <SimplePredicate field="assistenciaMateixaHora1WeekBefore" operator="equal" value="Present"/>
                <ScoreDistribution value="Present" recordCount="49.0"/>
                <ScoreDistribution value="Absent" recordCount="5.0"/>
              </Node>
              <Node id="2821" score="Present" recordCount="16.0">
                <SimplePredicate field="assistenciaMateixaHora1WeekBefore" operator="equal" value="Absent"/>
                <ScoreDistribution value="Present" recordCount="16.0"/>
                <ScoreDistribution value="Absent" recordCount="0.0"/>
              </Node>
              <Node id="2822" score="Absent" recordCount="2.0">
                <SimplePredicate field="assistenciaMateixaHora1WeekBefore" operator="equal" value="NA"/>
                <ScoreDistribution value="Present" recordCount="0.0"/>
                <ScoreDistribution value="Absent" recordCount="2.0"/>
              </Node>
            </Node>
          </Node>
          <Node id="2823" score="Present" recordCount="3444.0">
            <SimplePredicate field="assistenciaMateixaHora3WeekBefore" operator="equal" value="Present"/>
            <ScoreDistribution value="Present" recordCount="3403.0"/>
            <ScoreDistribution value="Absent" recordCount="41.0"/>
          </Node>
          <Node id="2886" score="Present" recordCount="495.0">
            <SimplePredicate field="assistenciaMateixaHora3WeekBefore" operator="equal" value="Absent"/>
            <ScoreDistribution value="Present" recordCount="476.0"/>
            <ScoreDistribution value="Absent" recordCount="19.0"/>
            <Node id="2887" score="Present" recordCount="333.0">
              <SimplePredicate field="assistenciaMateixaHora1WeekBefore" operator="equal" value="Present"/>
              <ScoreDistribution value="Present" recordCount="324.0"/>
              <ScoreDistribution value="Absent" recordCount="9.0"/>
            </Node>
            <Node id="2917" score="Present" recordCount="68.0">
              <SimplePredicate field="assistenciaMateixaHora1WeekBefore" operator="equal" value="Absent"/>
              <ScoreDistribution value="Present" recordCount="62.0"/>
              <ScoreDistribution value="Absent" recordCount="6.0"/>
              <Node id="2918" score="Present" recordCount="9.0">
                <SimplePredicate field="assistenciaMateixaHora2WeekBefore" operator="equal" value="NA"/>
                <ScoreDistribution value="Present" recordCount="6.0"/>
                <ScoreDistribution value="Absent" recordCount="3.0"/>
                <Node id="2920" score="Present" recordCount="5.0">
                  <SimplePredicate field="nom_nivell" operator="equal" value="CFGS Admin"/>
                  <ScoreDistribution value="Present" recordCount="4.0"/>
                  <ScoreDistribution value="Absent" recordCount="1.0"/>
                </Node>
                <Node id="2923" score="Absent" recordCount="1.0">
                  <SimplePredicate field="nom_nivell" operator="equal" value="CFGS Inform"/>
                  <ScoreDistribution value="Present" recordCount="0.0"/>
                  <ScoreDistribution value="Absent" recordCount="1.0"/>
                </Node>
                <Node id="2924" score="Absent" recordCount="1.0">
                  <SimplePredicate field="nom_nivell" operator="equal" value="CFGM Admin"/>
                  <ScoreDistribution value="Present" recordCount="0.0"/>
                  <ScoreDistribution value="Absent" recordCount="1.0"/>
                </Node>
                <Node id="2925" score="Present" recordCount="2.0">
                  <SimplePredicate field="nom_nivell" operator="equal" value="CFGM Infor"/>
                  <ScoreDistribution value="Present" recordCount="2.0"/>
                  <ScoreDistribution value="Absent" recordCount="0.0"/>
                </Node>
              </Node>
              <Node id="2926" score="Present" recordCount="45.0">
                <SimplePredicate field="assistenciaMateixaHora2WeekBefore" operator="equal" value="Present"/>
                <ScoreDistribution value="Present" recordCount="44.0"/>
                <ScoreDistribution value="Absent" recordCount="1.0"/>
              </Node>
              <Node id="2934" score="Present" recordCount="14.0">
                <SimplePredicate field="assistenciaMateixaHora2WeekBefore" operator="equal" value="Absent"/>
                <ScoreDistribution value="Present" recordCount="12.0"/>
                <ScoreDistribution value="Absent" recordCount="2.0"/>
              </Node>
            </Node>
            <Node id="2942" score="Present" recordCount="94.0">
              <SimplePredicate field="assistenciaMateixaHora1WeekBefore" operator="equal" value="NA"/>
              <ScoreDistribution value="Present" recordCount="90.0"/>
              <ScoreDistribution value="Absent" recordCount="4.0"/>
            </Node>
          </Node>
        </Node>
        <Node id="2957" score="Present" recordCount="58979.0">
          <SimplePredicate field="hora_inici" operator="equal" value="12:45:00"/>
          <ScoreDistribution value="Present" recordCount="57794.0"/>
          <ScoreDistribution value="Absent" recordCount="1185.0"/>
        </Node>
        <Node id="3661" score="Present" recordCount="59794.0">
          <SimplePredicate field="hora_inici" operator="equal" value="11:30:00"/>
          <ScoreDistribution value="Present" recordCount="59108.0"/>
          <ScoreDistribution value="Absent" recordCount="686.0"/>
        </Node>
        <Node id="4083" score="Present" recordCount="54740.0">
          <SimplePredicate field="hora_inici" operator="equal" value="13:45:00"/>
          <ScoreDistribution value="Present" recordCount="53900.0"/>
          <ScoreDistribution value="Absent" recordCount="840.0"/>
        </Node>
      </Node>
      <Node id="2" score="Absent" recordCount="35272.0">
        <SimplePredicate field="assistenciaaHoraAnterior" operator="equal" value="Absent"/>
        <ScoreDistribution value="Present" recordCount="5242.0"/>
        <ScoreDistribution value="Absent" recordCount="30030.0"/>
        <Node id="4" score="Absent" recordCount="6386.0">
          <SimplePredicate field="hora_inici" operator="equal" value="09:15:00"/>
          <ScoreDistribution value="Present" recordCount="1318.0"/>
          <ScoreDistribution value="Absent" recordCount="5068.0"/>
          <Node id="5" score="Absent" recordCount="4036.0">
            <SimplePredicate field="nom_nivell" operator="equal" value="ESO"/>
            <ScoreDistribution value="Present" recordCount="754.0"/>
            <ScoreDistribution value="Absent" recordCount="3282.0"/>
          </Node>
          <Node id="46" score="Absent" recordCount="995.0">
            <SimplePredicate field="nom_nivell" operator="equal" value="BTX"/>
            <ScoreDistribution value="Present" recordCount="289.0"/>
            <ScoreDistribution value="Absent" recordCount="706.0"/>
            <Node id="47" score="Absent" recordCount="110.0">
              <SimplePredicate field="assistenciaMateixaHora2WeekBefore" operator="equal" value="NA"/>
              <ScoreDistribution value="Present" recordCount="35.0"/>
              <ScoreDistribution value="Absent" recordCount="75.0"/>
            </Node>
            <Node id="60" score="Absent" recordCount="815.0">
              <SimplePredicate field="assistenciaMateixaHora2WeekBefore" operator="equal" value="Present"/>
              <ScoreDistribution value="Present" recordCount="224.0"/>
              <ScoreDistribution value="Absent" recordCount="591.0"/>
            </Node>
            <Node id="73" score="Absent" recordCount="70.0">
              <SimplePredicate field="assistenciaMateixaHora2WeekBefore" operator="equal" value="Absent"/>
              <ScoreDistribution value="Present" recordCount="30.0"/>
              <ScoreDistribution value="Absent" recordCount="40.0"/>
              <Node id="74" score="Present" recordCount="6.0">
                <SimplePredicate field="assistenciaMateixaHora3WeekBefore" operator="equal" value="NA"/>
                <ScoreDistribution value="Present" recordCount="6.0"/>
                <ScoreDistribution value="Absent" recordCount="0.0"/>
              </Node>
              <Node id="75" score="Absent" recordCount="57.0">
                <SimplePredicate field="assistenciaMateixaHora3WeekBefore" operator="equal" value="Present"/>
                <ScoreDistribution value="Present" recordCount="19.0"/>
                <ScoreDistribution value="Absent" recordCount="38.0"/>
                <Node id="76" score="Absent" recordCount="38.0">
                  <SimplePredicate field="assistenciaMateixaHora1WeekBefore" operator="equal" value="Present"/>
                  <ScoreDistribution value="Present" recordCount="11.0"/>
                  <ScoreDistribution value="Absent" recordCount="27.0"/>
                </Node>
                <Node id="77" score="Absent" recordCount="13.0">
                  <SimplePredicate field="assistenciaMateixaHora1WeekBefore" operator="equal" value="Absent"/>
                  <ScoreDistribution value="Present" recordCount="3.0"/>
                  <ScoreDistribution value="Absent" recordCount="10.0"/>
                </Node>
                <Node id="78" score="Present" recordCount="6.0">
                  <SimplePredicate field="assistenciaMateixaHora1WeekBefore" operator="equal" value="NA"/>
                  <ScoreDistribution value="Present" recordCount="5.0"/>
                  <ScoreDistribution value="Absent" recordCount="1.0"/>
                </Node>
              </Node>
              <Node id="79" score="Present" recordCount="7.0">
                <SimplePredicate field="assistenciaMateixaHora3WeekBefore" operator="equal" value="Absent"/>
                <ScoreDistribution value="Present" recordCount="5.0"/>
                <ScoreDistribution value="Absent" recordCount="2.0"/>
              </Node>
            </Node>
          </Node>
          <Node id="80" score="Absent" recordCount="15.0">
            <SimplePredicate field="nom_nivell" operator="equal" value="Alumnes x Classificar"/>
            <ScoreDistribution value="Present" recordCount="5.0"/>
            <ScoreDistribution value="Absent" recordCount="10.0"/>
          </Node>
          <Node id="85" score="Absent" recordCount="757.0">
            <SimplePredicate field="nom_nivell" operator="equal" value="CFGM Admin"/>
            <ScoreDistribution value="Present" recordCount="132.0"/>
            <ScoreDistribution value="Absent" recordCount="625.0"/>
            <Node id="86" score="Absent" recordCount="483.0">
              <SimplePredicate field="assistenciaMateixaHora1WeekBefore" operator="equal" value="Present"/>
              <ScoreDistribution value="Present" recordCount="88.0"/>
              <ScoreDistribution value="Absent" recordCount="395.0"/>
            </Node>
            <Node id="99" score="Absent" recordCount="177.0">
              <SimplePredicate field="assistenciaMateixaHora1WeekBefore" operator="equal" value="Absent"/>
              <ScoreDistribution value="Present" recordCount="16.0"/>
              <ScoreDistribution value="Absent" recordCount="161.0"/>
            </Node>
            <Node id="112" score="Absent" recordCount="97.0">
              <SimplePredicate field="assistenciaMateixaHora1WeekBefore" operator="equal" value="NA"/>
              <ScoreDistribution value="Present" recordCount="28.0"/>
              <ScoreDistribution value="Absent" recordCount="69.0"/>
              <Node id="113" score="Absent" recordCount="12.0">
                <SimplePredicate field="assistenciaMateixaHora3WeekBefore" operator="equal" value="NA"/>
                <ScoreDistribution value="Present" recordCount="2.0"/>
                <ScoreDistribution value="Absent" recordCount="10.0"/>
              </Node>
              <Node id="114" score="Absent" recordCount="52.0">
                <SimplePredicate field="assistenciaMateixaHora3WeekBefore" operator="equal" value="Present"/>
                <ScoreDistribution value="Present" recordCount="23.0"/>
                <ScoreDistribution value="Absent" recordCount="29.0"/>
                <Node id="115" score="Present" recordCount="16.0">
                  <SimplePredicate field="assistenciaMateixaHora2WeekBefore" operator="equal" value="NA"/>
                  <ScoreDistribution value="Present" recordCount="9.0"/>
                  <ScoreDistribution value="Absent" recordCount="7.0"/>
                </Node>
                <Node id="116" score="Absent" recordCount="30.0">
                  <SimplePredicate field="assistenciaMateixaHora2WeekBefore" operator="equal" value="Present"/>
                  <ScoreDistribution value="Present" recordCount="12.0"/>
                  <ScoreDistribution value="Absent" recordCount="18.0"/>
                </Node>
                <Node id="117" score="Absent" recordCount="6.0">
                  <SimplePredicate field="assistenciaMateixaHora2WeekBefore" operator="equal" value="Absent"/>
                  <ScoreDistribution value="Present" recordCount="2.0"/>
                  <ScoreDistribution value="Absent" recordCount="4.0"/>
                </Node>
              </Node>
              <Node id="118" score="Absent" recordCount="33.0">
                <SimplePredicate field="assistenciaMateixaHora3WeekBefore" operator="equal" value="Absent"/>
                <ScoreDistribution value="Present" recordCount="3.0"/>
                <ScoreDistribution value="Absent" recordCount="30.0"/>
              </Node>
            </Node>
          </Node>
          <Node id="122" score="Absent" recordCount="583.0">
            <SimplePredicate field="nom_nivell" operator="equal" value="CFGM Infor"/>
            <ScoreDistribution value="Present" recordCount="138.0"/>
            <ScoreDistribution value="Absent" recordCount="445.0"/>
            <Node id="123" score="Absent" recordCount="97.0">
              <SimplePredicate field="assistenciaMateixaHora3WeekBefore" operator="equal" value="NA"/>
              <ScoreDistribution value="Present" recordCount="44.0"/>
              <ScoreDistribution value="Absent" recordCount="53.0"/>
              <Node id="124" score="Present" recordCount="64.0">
                <SimplePredicate field="assistenciaMateixaHora1WeekBefore" operator="equal" value="Present"/>
                <ScoreDistribution value="Present" recordCount="34.0"/>
                <ScoreDistribution value="Absent" recordCount="30.0"/>
                <Node id="125" score="Absent" recordCount="17.0">
                  <SimplePredicate field="assistenciaMateixaHora2WeekBefore" operator="equal" value="NA"/>
                  <ScoreDistribution value="Present" recordCount="6.0"/>
                  <ScoreDistribution value="Absent" recordCount="11.0"/>
                </Node>
                <Node id="126" score="Present" recordCount="45.0">
                  <SimplePredicate field="assistenciaMateixaHora2WeekBefore" operator="equal" value="Present"/>
                  <ScoreDistribution value="Present" recordCount="27.0"/>
                  <ScoreDistribution value="Absent" recordCount="18.0"/>
                </Node>
                <Node id="127" score="Present" recordCount="2.0">
                  <SimplePredicate field="assistenciaMateixaHora2WeekBefore" operator="equal" value="Absent"/>
                  <ScoreDistribution value="Present" recordCount="1.0"/>
                  <ScoreDistribution value="Absent" recordCount="1.0"/>
                </Node>
              </Node>
              <Node id="128" score="Absent" recordCount="21.0">
                <SimplePredicate field="assistenciaMateixaHora1WeekBefore" operator="equal" value="Absent"/>
                <ScoreDistribution value="Present" recordCount="5.0"/>
                <ScoreDistribution value="Absent" recordCount="16.0"/>
              </Node>
              <Node id="132" score="Absent" recordCount="12.0">
                <SimplePredicate field="assistenciaMateixaHora1WeekBefore" operator="equal" value="NA"/>
                <ScoreDistribution value="Present" recordCount="5.0"/>
                <ScoreDistribution value="Absent" recordCount="7.0"/>
              </Node>
            </Node>
            <Node id="133" score="Absent" recordCount="370.0">
              <SimplePredicate field="assistenciaMateixaHora3WeekBefore" operator="equal" value="Present"/>
              <ScoreDistribution value="Present" recordCount="81.0"/>
              <ScoreDistribution value="Absent" recordCount="289.0"/>
              <Node id="134" score="Absent" recordCount="291.0">
                <SimplePredicate field="assistenciaMateixaHora1WeekBefore" operator="equal" value="Present"/>
                <ScoreDistribution value="Present" recordCount="58.0"/>
                <ScoreDistribution value="Absent" recordCount="233.0"/>
              </Node>
              <Node id="138" score="Absent" recordCount="55.0">
                <SimplePredicate field="assistenciaMateixaHora1WeekBefore" operator="equal" value="Absent"/>
                <ScoreDistribution value="Present" recordCount="10.0"/>
                <ScoreDistribution value="Absent" recordCount="45.0"/>
              </Node>
              <Node id="142" score="Present" recordCount="24.0">
                <SimplePredicate field="assistenciaMateixaHora1WeekBefore" operator="equal" value="NA"/>
                <ScoreDistribution value="Present" recordCount="13.0"/>
                <ScoreDistribution value="Absent" recordCount="11.0"/>
                <Node id="143" score="Present" recordCount="6.0">
                  <SimplePredicate field="assistenciaMateixaHora2WeekBefore" operator="equal" value="NA"/>
                  <ScoreDistribution value="Present" recordCount="4.0"/>
                  <ScoreDistribution value="Absent" recordCount="2.0"/>
                </Node>
                <Node id="144" score="Present" recordCount="13.0">
                  <SimplePredicate field="assistenciaMateixaHora2WeekBefore" operator="equal" value="Present"/>
                  <ScoreDistribution value="Present" recordCount="7.0"/>
                  <ScoreDistribution value="Absent" recordCount="6.0"/>
                </Node>
                <Node id="145" score="Absent" recordCount="5.0">
                  <SimplePredicate field="assistenciaMateixaHora2WeekBefore" operator="equal" value="Absent"/>
                  <ScoreDistribution value="Present" recordCount="2.0"/>
                  <ScoreDistribution value="Absent" recordCount="3.0"/>
                </Node>
              </Node>
            </Node>
            <Node id="146" score="Absent" recordCount="116.0">
              <SimplePredicate field="assistenciaMateixaHora3WeekBefore" operator="equal" value="Absent"/>
              <ScoreDistribution value="Present" recordCount="13.0"/>
              <ScoreDistribution value="Absent" recordCount="103.0"/>
            </Node>
          </Node>
        </Node>
        <Node id="159" score="Absent" recordCount="5928.0">
          <SimplePredicate field="hora_inici" operator="equal" value="10:30:00"/>
          <ScoreDistribution value="Present" recordCount="964.0"/>
          <ScoreDistribution value="Absent" recordCount="4964.0"/>
          <Node id="160" score="Absent" recordCount="3654.0">
            <SimplePredicate field="nom_nivell" operator="equal" value="ESO"/>
            <ScoreDistribution value="Present" recordCount="546.0"/>
            <ScoreDistribution value="Absent" recordCount="3108.0"/>
            <Node id="161" score="Absent" recordCount="2488.0">
              <SimplePredicate field="assistenciaMateixaHora1WeekBefore" operator="equal" value="Present"/>
              <ScoreDistribution value="Present" recordCount="373.0"/>
              <ScoreDistribution value="Absent" recordCount="2115.0"/>
            </Node>
            <Node id="174" score="Absent" recordCount="712.0">
              <SimplePredicate field="assistenciaMateixaHora1WeekBefore" operator="equal" value="Absent"/>
              <ScoreDistribution value="Present" recordCount="88.0"/>
              <ScoreDistribution value="Absent" recordCount="624.0"/>
            </Node>
            <Node id="187" score="Absent" recordCount="454.0">
              <SimplePredicate field="assistenciaMateixaHora1WeekBefore" operator="equal" value="NA"/>
              <ScoreDistribution value="Present" recordCount="85.0"/>
              <ScoreDistribution value="Absent" recordCount="369.0"/>
              <Node id="188" score="Absent" recordCount="75.0">
                <SimplePredicate field="assistenciaMateixaHora3WeekBefore" operator="equal" value="NA"/>
                <ScoreDistribution value="Present" recordCount="17.0"/>
                <ScoreDistribution value="Absent" recordCount="58.0"/>
                <Node id="189" score="Absent" recordCount="58.0">
                  <SimplePredicate field="assistenciaMateixaHora2WeekBefore" operator="equal" value="NA"/>
                  <ScoreDistribution value="Present" recordCount="12.0"/>
                  <ScoreDistribution value="Absent" recordCount="46.0"/>
                </Node>
                <Node id="190" score="Absent" recordCount="13.0">
                  <SimplePredicate field="assistenciaMateixaHora2WeekBefore" operator="equal" value="Present"/>
                  <ScoreDistribution value="Present" recordCount="2.0"/>
                  <ScoreDistribution value="Absent" recordCount="11.0"/>
                </Node>
                <Node id="191" score="Present" recordCount="4.0">
                  <SimplePredicate field="assistenciaMateixaHora2WeekBefore" operator="equal" value="Absent"/>
                  <ScoreDistribution value="Present" recordCount="3.0"/>
                  <ScoreDistribution value="Absent" recordCount="1.0"/>
                </Node>
              </Node>
              <Node id="192" score="Absent" recordCount="285.0">
                <SimplePredicate field="assistenciaMateixaHora3WeekBefore" operator="equal" value="Present"/>
                <ScoreDistribution value="Present" recordCount="58.0"/>
                <ScoreDistribution value="Absent" recordCount="227.0"/>
              </Node>
              <Node id="196" score="Absent" recordCount="94.0">
                <SimplePredicate field="assistenciaMateixaHora3WeekBefore" operator="equal" value="Absent"/>
                <ScoreDistribution value="Present" recordCount="10.0"/>
                <ScoreDistribution value="Absent" recordCount="84.0"/>
              </Node>
            </Node>
          </Node>
          <Node id="201" score="Absent" recordCount="822.0">
            <SimplePredicate field="nom_nivell" operator="equal" value="BTX"/>
            <ScoreDistribution value="Present" recordCount="153.0"/>
            <ScoreDistribution value="Absent" recordCount="669.0"/>
            <Node id="202" score="Absent" recordCount="148.0">
              <SimplePredicate field="assistenciaMateixaHora3WeekBefore" operator="equal" value="NA"/>
              <ScoreDistribution value="Present" recordCount="36.0"/>
              <ScoreDistribution value="Absent" recordCount="112.0"/>
              <Node id="203" score="Absent" recordCount="60.0">
                <SimplePredicate field="assistenciaMateixaHora2WeekBefore" operator="equal" value="NA"/>
                <ScoreDistribution value="Present" recordCount="14.0"/>
                <ScoreDistribution value="Absent" recordCount="46.0"/>
              </Node>
              <Node id="207" score="Absent" recordCount="87.0">
                <SimplePredicate field="assistenciaMateixaHora2WeekBefore" operator="equal" value="Present"/>
                <ScoreDistribution value="Present" recordCount="21.0"/>
                <ScoreDistribution value="Absent" recordCount="66.0"/>
              </Node>
              <Node id="211" score="Present" recordCount="1.0">
                <SimplePredicate field="assistenciaMateixaHora2WeekBefore" operator="equal" value="Absent"/>
                <ScoreDistribution value="Present" recordCount="1.0"/>
                <ScoreDistribution value="Absent" recordCount="0.0"/>
              </Node>
            </Node>
            <Node id="212" score="Absent" recordCount="607.0">
              <SimplePredicate field="assistenciaMateixaHora3WeekBefore" operator="equal" value="Present"/>
              <ScoreDistribution value="Present" recordCount="101.0"/>
              <ScoreDistribution value="Absent" recordCount="506.0"/>
            </Node>
            <Node id="225" score="Absent" recordCount="67.0">
              <SimplePredicate field="assistenciaMateixaHora3WeekBefore" operator="equal" value="Absent"/>
              <ScoreDistribution value="Present" recordCount="16.0"/>
              <ScoreDistribution value="Absent" recordCount="51.0"/>
            </Node>
          </Node>
          <Node id="235" score="Present" recordCount="15.0">
            <SimplePredicate field="nom_nivell" operator="equal" value="Alumnes x Classificar"/>
            <ScoreDistribution value="Present" recordCount="8.0"/>
            <ScoreDistribution value="Absent" recordCount="7.0"/>
            <Node id="236" score="Present" recordCount="9.0">
              <SimplePredicate field="assistenciaMateixaHora1WeekBefore" operator="equal" value="Present"/>
              <ScoreDistribution value="Present" recordCount="6.0"/>
              <ScoreDistribution value="Absent" recordCount="3.0"/>
            </Node>
            <Node id="240" score="Absent" recordCount="4.0">
              <SimplePredicate field="assistenciaMateixaHora1WeekBefore" operator="equal" value="Absent"/>
              <ScoreDistribution value="Present" recordCount="0.0"/>
              <ScoreDistribution value="Absent" recordCount="4.0"/>
            </Node>
            <Node id="241" score="Present" recordCount="2.0">
              <SimplePredicate field="assistenciaMateixaHora1WeekBefore" operator="equal" value="NA"/>
              <ScoreDistribution value="Present" recordCount="2.0"/>
              <ScoreDistribution value="Absent" recordCount="0.0"/>
            </Node>
          </Node>
          <Node id="243" score="Absent" recordCount="724.0">
            <SimplePredicate field="nom_nivell" operator="equal" value="CFGM Admin"/>
            <ScoreDistribution value="Present" recordCount="130.0"/>
            <ScoreDistribution value="Absent" recordCount="594.0"/>
          </Node>
          <Node id="280" score="Absent" recordCount="713.0">
            <SimplePredicate field="nom_nivell" operator="equal" value="CFGM Infor"/>
            <ScoreDistribution value="Present" recordCount="127.0"/>
            <ScoreDistribution value="Absent" recordCount="586.0"/>
            <Node id="281" score="Absent" recordCount="80.0">
              <SimplePredicate field="assistenciaMateixaHora3WeekBefore" operator="equal" value="NA"/>
              <ScoreDistribution value="Present" recordCount="32.0"/>
              <ScoreDistribution value="Absent" recordCount="48.0"/>
              <Node id="282" score="Absent" recordCount="30.0">
                <SimplePredicate field="assistenciaMateixaHora2WeekBefore" operator="equal" value="NA"/>
                <ScoreDistribution value="Present" recordCount="13.0"/>
                <ScoreDistribution value="Absent" recordCount="17.0"/>
              </Node>
              <Node id="286" score="Absent" recordCount="41.0">
                <SimplePredicate field="assistenciaMateixaHora2WeekBefore" operator="equal" value="Present"/>
                <ScoreDistribution value="Present" recordCount="16.0"/>
                <ScoreDistribution value="Absent" recordCount="25.0"/>
                <Node id="287" score="Absent" recordCount="36.0">
                  <SimplePredicate field="assistenciaMateixaHora1WeekBefore" operator="equal" value="Present"/>
                  <ScoreDistribution value="Present" recordCount="13.0"/>
                  <ScoreDistribution value="Absent" recordCount="23.0"/>
                </Node>
                <Node id="288" score="Present" recordCount="5.0">
                  <SimplePredicate field="assistenciaMateixaHora1WeekBefore" operator="equal" value="Absent"/>
                  <ScoreDistribution value="Present" recordCount="3.0"/>
                  <ScoreDistribution value="Absent" recordCount="2.0"/>
                </Node>
              </Node>
              <Node id="290" score="Absent" recordCount="9.0">
                <SimplePredicate field="assistenciaMateixaHora2WeekBefore" operator="equal" value="Absent"/>
                <ScoreDistribution value="Present" recordCount="3.0"/>
                <ScoreDistribution value="Absent" recordCount="6.0"/>
              </Node>
            </Node>
            <Node id="294" score="Absent" recordCount="498.0">
              <SimplePredicate field="assistenciaMateixaHora3WeekBefore" operator="equal" value="Present"/>
              <ScoreDistribution value="Present" recordCount="69.0"/>
              <ScoreDistribution value="Absent" recordCount="429.0"/>
            </Node>
            <Node id="307" score="Absent" recordCount="135.0">
              <SimplePredicate field="assistenciaMateixaHora3WeekBefore" operator="equal" value="Absent"/>
              <ScoreDistribution value="Present" recordCount="26.0"/>
              <ScoreDistribution value="Absent" recordCount="109.0"/>
              <Node id="308" score="Absent" recordCount="56.0">
                <SimplePredicate field="assistenciaMateixaHora1WeekBefore" operator="equal" value="Present"/>
                <ScoreDistribution value="Present" recordCount="9.0"/>
                <ScoreDistribution value="Absent" recordCount="47.0"/>
              </Node>
              <Node id="312" score="Absent" recordCount="69.0">
                <SimplePredicate field="assistenciaMateixaHora1WeekBefore" operator="equal" value="Absent"/>
                <ScoreDistribution value="Present" recordCount="13.0"/>
                <ScoreDistribution value="Absent" recordCount="56.0"/>
              </Node>
              <Node id="316" score="Absent" recordCount="10.0">
                <SimplePredicate field="assistenciaMateixaHora1WeekBefore" operator="equal" value="NA"/>
                <ScoreDistribution value="Present" recordCount="4.0"/>
                <ScoreDistribution value="Absent" recordCount="6.0"/>
                <Node id="317" score="Present" recordCount="2.0">
                  <SimplePredicate field="assistenciaMateixaHora2WeekBefore" operator="equal" value="NA"/>
                  <ScoreDistribution value="Present" recordCount="1.0"/>
                  <ScoreDistribution value="Absent" recordCount="1.0"/>
                </Node>
                <Node id="318" score="Present" recordCount="2.0">
                  <SimplePredicate field="assistenciaMateixaHora2WeekBefore" operator="equal" value="Present"/>
                  <ScoreDistribution value="Present" recordCount="2.0"/>
                  <ScoreDistribution value="Absent" recordCount="0.0"/>
                </Node>
                <Node id="319" score="Absent" recordCount="6.0">
                  <SimplePredicate field="assistenciaMateixaHora2WeekBefore" operator="equal" value="Absent"/>
                  <ScoreDistribution value="Present" recordCount="1.0"/>
                  <ScoreDistribution value="Absent" recordCount="5.0"/>
                </Node>
              </Node>
            </Node>
          </Node>
        </Node>
        <Node id="320" score="Absent" recordCount="1452.0">
          <SimplePredicate field="hora_inici" operator="equal" value="18:05:00"/>
          <ScoreDistribution value="Present" recordCount="293.0"/>
          <ScoreDistribution value="Absent" recordCount="1159.0"/>
          <Node id="322" score="Absent" recordCount="538.0">
            <SimplePredicate field="nom_nivell" operator="equal" value="CFGS Admin"/>
            <ScoreDistribution value="Present" recordCount="168.0"/>
            <ScoreDistribution value="Absent" recordCount="370.0"/>
            <Node id="323" score="Absent" recordCount="377.0">
              <SimplePredicate field="assistenciaMateixaHora1WeekBefore" operator="equal" value="Present"/>
              <ScoreDistribution value="Present" recordCount="120.0"/>
              <ScoreDistribution value="Absent" recordCount="257.0"/>
              <Node id="324" score="Absent" recordCount="40.0">
                <SimplePredicate field="assistenciaMateixaHora2WeekBefore" operator="equal" value="NA"/>
                <ScoreDistribution value="Present" recordCount="17.0"/>
                <ScoreDistribution value="Absent" recordCount="23.0"/>
                <Node id="325" score="Present" recordCount="19.0">
                  <SimplePredicate field="assistenciaMateixaHora3WeekBefore" operator="equal" value="NA"/>
                  <ScoreDistribution value="Present" recordCount="12.0"/>
                  <ScoreDistribution value="Absent" recordCount="7.0"/>
                </Node>
                <Node id="326" score="Absent" recordCount="17.0">
                  <SimplePredicate field="assistenciaMateixaHora3WeekBefore" operator="equal" value="Present"/>
                  <ScoreDistribution value="Present" recordCount="4.0"/>
                  <ScoreDistribution value="Absent" recordCount="13.0"/>
                </Node>
                <Node id="327" score="Absent" recordCount="4.0">
                  <SimplePredicate field="assistenciaMateixaHora3WeekBefore" operator="equal" value="Absent"/>
                  <ScoreDistribution value="Present" recordCount="1.0"/>
                  <ScoreDistribution value="Absent" recordCount="3.0"/>
                </Node>
              </Node>
              <Node id="328" score="Absent" recordCount="302.0">
                <SimplePredicate field="assistenciaMateixaHora2WeekBefore" operator="equal" value="Present"/>
                <ScoreDistribution value="Present" recordCount="82.0"/>
                <ScoreDistribution value="Absent" recordCount="220.0"/>
              </Node>
              <Node id="332" score="Present" recordCount="35.0">
                <SimplePredicate field="assistenciaMateixaHora2WeekBefore" operator="equal" value="Absent"/>
                <ScoreDistribution value="Present" recordCount="21.0"/>
                <ScoreDistribution value="Absent" recordCount="14.0"/>
                <Node id="333" score="Present" recordCount="2.0">
                  <SimplePredicate field="assistenciaMateixaHora3WeekBefore" operator="equal" value="NA"/>
                  <ScoreDistribution value="Present" recordCount="2.0"/>
                  <ScoreDistribution value="Absent" recordCount="0.0"/>
                </Node>
                <Node id="334" score="Present" recordCount="20.0">
                  <SimplePredicate field="assistenciaMateixaHora3WeekBefore" operator="equal" value="Present"/>
                  <ScoreDistribution value="Present" recordCount="14.0"/>
                  <ScoreDistribution value="Absent" recordCount="6.0"/>
                </Node>
                <Node id="335" score="Absent" recordCount="13.0">
                  <SimplePredicate field="assistenciaMateixaHora3WeekBefore" operator="equal" value="Absent"/>
                  <ScoreDistribution value="Present" recordCount="5.0"/>
                  <ScoreDistribution value="Absent" recordCount="8.0"/>
                </Node>
              </Node>
            </Node>
            <Node id="336" score="Absent" recordCount="87.0">
              <SimplePredicate field="assistenciaMateixaHora1WeekBefore" operator="equal" value="Absent"/>
              <ScoreDistribution value="Present" recordCount="17.0"/>
              <ScoreDistribution value="Absent" recordCount="70.0"/>
            </Node>
            <Node id="349" score="Absent" recordCount="74.0">
              <SimplePredicate field="assistenciaMateixaHora1WeekBefore" operator="equal" value="NA"/>
              <ScoreDistribution value="Present" recordCount="31.0"/>
              <ScoreDistribution value="Absent" recordCount="43.0"/>
              <Node id="350" score="Absent" recordCount="49.0">
                <SimplePredicate field="assistenciaMateixaHora2WeekBefore" operator="equal" value="NA"/>
                <ScoreDistribution value="Present" recordCount="16.0"/>
                <ScoreDistribution value="Absent" recordCount="33.0"/>
              </Node>
              <Node id="354" score="Present" recordCount="18.0">
                <SimplePredicate field="assistenciaMateixaHora2WeekBefore" operator="equal" value="Present"/>
                <ScoreDistribution value="Present" recordCount="12.0"/>
                <ScoreDistribution value="Absent" recordCount="6.0"/>
                <Node id="355" score="Present" recordCount="6.0">
                  <SimplePredicate field="assistenciaMateixaHora3WeekBefore" operator="equal" value="NA"/>
                  <ScoreDistribution value="Present" recordCount="4.0"/>
                  <ScoreDistribution value="Absent" recordCount="2.0"/>
                </Node>
                <Node id="356" score="Present" recordCount="9.0">
                  <SimplePredicate field="assistenciaMateixaHora3WeekBefore" operator="equal" value="Present"/>
                  <ScoreDistribution value="Present" recordCount="7.0"/>
                  <ScoreDistribution value="Absent" recordCount="2.0"/>
                </Node>
                <Node id="357" score="Absent" recordCount="3.0">
                  <SimplePredicate field="assistenciaMateixaHora3WeekBefore" operator="equal" value="Absent"/>
                  <ScoreDistribution value="Present" recordCount="1.0"/>
                  <ScoreDistribution value="Absent" recordCount="2.0"/>
                </Node>
              </Node>
              <Node id="358" score="Absent" recordCount="7.0">
                <SimplePredicate field="assistenciaMateixaHora2WeekBefore" operator="equal" value="Absent"/>
                <ScoreDistribution value="Present" recordCount="3.0"/>
                <ScoreDistribution value="Absent" recordCount="4.0"/>
                <Node id="359" score="Absent" recordCount="2.0">
                  <SimplePredicate field="assistenciaMateixaHora3WeekBefore" operator="equal" value="NA"/>
                  <ScoreDistribution value="Present" recordCount="0.0"/>
                  <ScoreDistribution value="Absent" recordCount="2.0"/>
                </Node>
                <Node id="360" score="Present" recordCount="4.0">
                  <SimplePredicate field="assistenciaMateixaHora3WeekBefore" operator="equal" value="Present"/>
                  <ScoreDistribution value="Present" recordCount="2.0"/>
                  <ScoreDistribution value="Absent" recordCount="2.0"/>
                </Node>
                <Node id="361" score="Present" recordCount="1.0">
                  <SimplePredicate field="assistenciaMateixaHora3WeekBefore" operator="equal" value="Absent"/>
                  <ScoreDistribution value="Present" recordCount="1.0"/>
                  <ScoreDistribution value="Absent" recordCount="0.0"/>
                </Node>
              </Node>
            </Node>
          </Node>
          <Node id="364" score="Absent" recordCount="190.0">
            <SimplePredicate field="nom_nivell" operator="equal" value="CFGS Inform"/>
            <ScoreDistribution value="Present" recordCount="12.0"/>
            <ScoreDistribution value="Absent" recordCount="178.0"/>
            <Node id="365" score="Absent" recordCount="24.0">
              <SimplePredicate field="assistenciaMateixaHora2WeekBefore" operator="equal" value="NA"/>
              <ScoreDistribution value="Present" recordCount="6.0"/>
              <ScoreDistribution value="Absent" recordCount="18.0"/>
              <Node id="366" score="Absent" recordCount="17.0">
                <SimplePredicate field="assistenciaMateixaHora3WeekBefore" operator="equal" value="NA"/>
                <ScoreDistribution value="Present" recordCount="2.0"/>
                <ScoreDistribution value="Absent" recordCount="15.0"/>
              </Node>
              <Node id="367" score="Present" recordCount="7.0">
                <SimplePredicate field="assistenciaMateixaHora3WeekBefore" operator="equal" value="Present"/>
                <ScoreDistribution value="Present" recordCount="4.0"/>
                <ScoreDistribution value="Absent" recordCount="3.0"/>
              </Node>
            </Node>
            <Node id="369" score="Absent" recordCount="147.0">
              <SimplePredicate field="assistenciaMateixaHora2WeekBefore" operator="equal" value="Present"/>
              <ScoreDistribution value="Present" recordCount="5.0"/>
              <ScoreDistribution value="Absent" recordCount="142.0"/>
            </Node>
            <Node id="379" score="Absent" recordCount="19.0">
              <SimplePredicate field="assistenciaMateixaHora2WeekBefore" operator="equal" value="Absent"/>
              <ScoreDistribution value="Present" recordCount="1.0"/>
              <ScoreDistribution value="Absent" recordCount="18.0"/>
            </Node>
          </Node>
          <Node id="383" score="Absent" recordCount="333.0">
            <SimplePredicate field="nom_nivell" operator="equal" value="CFGM Admin"/>
            <ScoreDistribution value="Present" recordCount="70.0"/>
            <ScoreDistribution value="Absent" recordCount="263.0"/>
            <Node id="384" score="Absent" recordCount="50.0">
              <SimplePredicate field="assistenciaMateixaHora3WeekBefore" operator="equal" value="NA"/>
              <ScoreDistribution value="Present" recordCount="18.0"/>
              <ScoreDistribution value="Absent" recordCount="32.0"/>
            </Node>
            <Node id="394" score="Absent" recordCount="203.0">
              <SimplePredicate field="assistenciaMateixaHora3WeekBefore" operator="equal" value="Present"/>
              <ScoreDistribution value="Present" recordCount="35.0"/>
              <ScoreDistribution value="Absent" recordCount="168.0"/>
            </Node>
            <Node id="407" score="Absent" recordCount="80.0">
              <SimplePredicate field="assistenciaMateixaHora3WeekBefore" operator="equal" value="Absent"/>
              <ScoreDistribution value="Present" recordCount="17.0"/>
              <ScoreDistribution value="Absent" recordCount="63.0"/>
              <Node id="408" score="Absent" recordCount="45.0">
                <SimplePredicate field="assistenciaMateixaHora1WeekBefore" operator="equal" value="Present"/>
                <ScoreDistribution value="Present" recordCount="7.0"/>
                <ScoreDistribution value="Absent" recordCount="38.0"/>
              </Node>
              <Node id="412" score="Absent" recordCount="26.0">
                <SimplePredicate field="assistenciaMateixaHora1WeekBefore" operator="equal" value="Absent"/>
                <ScoreDistribution value="Present" recordCount="4.0"/>
                <ScoreDistribution value="Absent" recordCount="22.0"/>
              </Node>
              <Node id="416" score="Present" recordCount="9.0">
                <SimplePredicate field="assistenciaMateixaHora1WeekBefore" operator="equal" value="NA"/>
                <ScoreDistribution value="Present" recordCount="6.0"/>
                <ScoreDistribution value="Absent" recordCount="3.0"/>
              </Node>
            </Node>
          </Node>
          <Node id="417" score="Absent" recordCount="391.0">
            <SimplePredicate field="nom_nivell" operator="equal" value="CFGM Infor"/>
            <ScoreDistribution value="Present" recordCount="43.0"/>
            <ScoreDistribution value="Absent" recordCount="348.0"/>
            <Node id="418" score="Absent" recordCount="29.0">
              <SimplePredicate field="assistenciaMateixaHora2WeekBefore" operator="equal" value="NA"/>
              <ScoreDistribution value="Present" recordCount="7.0"/>
              <ScoreDistribution value="Absent" recordCount="22.0"/>
              <Node id="419" score="Absent" recordCount="15.0">
                <SimplePredicate field="assistenciaMateixaHora3WeekBefore" operator="equal" value="NA"/>
                <ScoreDistribution value="Present" recordCount="2.0"/>
                <ScoreDistribution value="Absent" recordCount="13.0"/>
              </Node>
              <Node id="423" score="Absent" recordCount="13.0">
                <SimplePredicate field="assistenciaMateixaHora3WeekBefore" operator="equal" value="Present"/>
                <ScoreDistribution value="Present" recordCount="5.0"/>
                <ScoreDistribution value="Absent" recordCount="8.0"/>
                <Node id="424" score="Present" recordCount="7.0">
                  <SimplePredicate field="assistenciaMateixaHora1WeekBefore" operator="equal" value="Present"/>
                  <ScoreDistribution value="Present" recordCount="4.0"/>
                  <ScoreDistribution value="Absent" recordCount="3.0"/>
                </Node>
                <Node id="425" score="Present" recordCount="1.0">
                  <SimplePredicate field="assistenciaMateixaHora1WeekBefore" operator="equal" value="Absent"/>
                  <ScoreDistribution value="Present" recordCount="1.0"/>
                  <ScoreDistribution value="Absent" recordCount="0.0"/>
                </Node>
                <Node id="426" score="Absent" recordCount="5.0">
                  <SimplePredicate field="assistenciaMateixaHora1WeekBefore" operator="equal" value="NA"/>
                  <ScoreDistribution value="Present" recordCount="0.0"/>
                  <ScoreDistribution value="Absent" recordCount="5.0"/>
                </Node>
              </Node>
              <Node id="427" score="Absent" recordCount="1.0">
                <SimplePredicate field="assistenciaMateixaHora3WeekBefore" operator="equal" value="Absent"/>
                <ScoreDistribution value="Present" recordCount="0.0"/>
                <ScoreDistribution value="Absent" recordCount="1.0"/>
              </Node>
            </Node>
            <Node id="428" score="Absent" recordCount="281.0">
              <SimplePredicate field="assistenciaMateixaHora2WeekBefore" operator="equal" value="Present"/>
              <ScoreDistribution value="Present" recordCount="31.0"/>
              <ScoreDistribution value="Absent" recordCount="250.0"/>
              <Node id="429" score="Absent" recordCount="210.0">
                <SimplePredicate field="assistenciaMateixaHora1WeekBefore" operator="equal" value="Present"/>
                <ScoreDistribution value="Present" recordCount="18.0"/>
                <ScoreDistribution value="Absent" recordCount="192.0"/>
              </Node>
              <Node id="433" score="Absent" recordCount="53.0">
                <SimplePredicate field="assistenciaMateixaHora1WeekBefore" operator="equal" value="Absent"/>
                <ScoreDistribution value="Present" recordCount="6.0"/>
                <ScoreDistribution value="Absent" recordCount="47.0"/>
                <Node id="434" score="Present" recordCount="5.0">
                  <SimplePredicate field="assistenciaMateixaHora3WeekBefore" operator="equal" value="NA"/>
                  <ScoreDistribution value="Present" recordCount="3.0"/>
                  <ScoreDistribution value="Absent" recordCount="2.0"/>
                </Node>
                <Node id="435" score="Absent" recordCount="42.0">
                  <SimplePredicate field="assistenciaMateixaHora3WeekBefore" operator="equal" value="Present"/>
                  <ScoreDistribution value="Present" recordCount="2.0"/>
                  <ScoreDistribution value="Absent" recordCount="40.0"/>
                </Node>
                <Node id="436" score="Absent" recordCount="6.0">
                  <SimplePredicate field="assistenciaMateixaHora3WeekBefore" operator="equal" value="Absent"/>
                  <ScoreDistribution value="Present" recordCount="1.0"/>
                  <ScoreDistribution value="Absent" recordCount="5.0"/>
                </Node>
              </Node>
              <Node id="437" score="Absent" recordCount="18.0">
                <SimplePredicate field="assistenciaMateixaHora1WeekBefore" operator="equal" value="NA"/>
                <ScoreDistribution value="Present" recordCount="7.0"/>
                <ScoreDistribution value="Absent" recordCount="11.0"/>
                <Node id="439" score="Present" recordCount="10.0">
                  <SimplePredicate field="assistenciaMateixaHora3WeekBefore" operator="equal" value="Present"/>
                  <ScoreDistribution value="Present" recordCount="6.0"/>
                  <ScoreDistribution value="Absent" recordCount="4.0"/>
                </Node>
                <Node id="440" score="Absent" recordCount="8.0">
                  <SimplePredicate field="assistenciaMateixaHora3WeekBefore" operator="equal" value="Absent"/>
                  <ScoreDistribution value="Present" recordCount="1.0"/>
                  <ScoreDistribution value="Absent" recordCount="7.0"/>
                </Node>
              </Node>
            </Node>
            <Node id="441" score="Absent" recordCount="81.0">
              <SimplePredicate field="assistenciaMateixaHora2WeekBefore" operator="equal" value="Absent"/>
              <ScoreDistribution value="Present" recordCount="5.0"/>
              <ScoreDistribution value="Absent" recordCount="76.0"/>
            </Node>
          </Node>
        </Node>
        <Node id="448" score="Absent" recordCount="1677.0">
          <SimplePredicate field="hora_inici" operator="equal" value="19:00:00"/>
          <ScoreDistribution value="Present" recordCount="177.0"/>
          <ScoreDistribution value="Absent" recordCount="1500.0"/>
          <Node id="450" score="Absent" recordCount="505.0">
            <SimplePredicate field="nom_nivell" operator="equal" value="CFGS Admin"/>
            <ScoreDistribution value="Present" recordCount="82.0"/>
            <ScoreDistribution value="Absent" recordCount="423.0"/>
            <Node id="451" score="Absent" recordCount="344.0">
              <SimplePredicate field="assistenciaMateixaHora1WeekBefore" operator="equal" value="Present"/>
              <ScoreDistribution value="Present" recordCount="64.0"/>
              <ScoreDistribution value="Absent" recordCount="280.0"/>
              <Node id="452" score="Absent" recordCount="51.0">
                <SimplePredicate field="assistenciaMateixaHora2WeekBefore" operator="equal" value="NA"/>
                <ScoreDistribution value="Present" recordCount="15.0"/>
                <ScoreDistribution value="Absent" recordCount="36.0"/>
                <Node id="453" score="Present" recordCount="19.0">
                  <SimplePredicate field="assistenciaMateixaHora3WeekBefore" operator="equal" value="NA"/>
                  <ScoreDistribution value="Present" recordCount="13.0"/>
                  <ScoreDistribution value="Absent" recordCount="6.0"/>
                </Node>
                <Node id="454" score="Absent" recordCount="21.0">
                  <SimplePredicate field="assistenciaMateixaHora3WeekBefore" operator="equal" value="Present"/>
                  <ScoreDistribution value="Present" recordCount="2.0"/>
                  <ScoreDistribution value="Absent" recordCount="19.0"/>
                </Node>
                <Node id="455" score="Absent" recordCount="11.0">
                  <SimplePredicate field="assistenciaMateixaHora3WeekBefore" operator="equal" value="Absent"/>
                  <ScoreDistribution value="Present" recordCount="0.0"/>
                  <ScoreDistribution value="Absent" recordCount="11.0"/>
                </Node>
              </Node>
              <Node id="456" score="Absent" recordCount="257.0">
                <SimplePredicate field="assistenciaMateixaHora2WeekBefore" operator="equal" value="Present"/>
                <ScoreDistribution value="Present" recordCount="43.0"/>
                <ScoreDistribution value="Absent" recordCount="214.0"/>
              </Node>
              <Node id="460" score="Absent" recordCount="36.0">
                <SimplePredicate field="assistenciaMateixaHora2WeekBefore" operator="equal" value="Absent"/>
                <ScoreDistribution value="Present" recordCount="6.0"/>
                <ScoreDistribution value="Absent" recordCount="30.0"/>
              </Node>
            </Node>
            <Node id="464" score="Absent" recordCount="100.0">
              <SimplePredicate field="assistenciaMateixaHora1WeekBefore" operator="equal" value="Absent"/>
              <ScoreDistribution value="Present" recordCount="12.0"/>
              <ScoreDistribution value="Absent" recordCount="88.0"/>
            </Node>
            <Node id="477" score="Absent" recordCount="61.0">
              <SimplePredicate field="assistenciaMateixaHora1WeekBefore" operator="equal" value="NA"/>
              <ScoreDistribution value="Present" recordCount="6.0"/>
              <ScoreDistribution value="Absent" recordCount="55.0"/>
            </Node>
          </Node>
          <Node id="489" score="Absent" recordCount="296.0">
            <SimplePredicate field="nom_nivell" operator="equal" value="CFGS Inform"/>
            <ScoreDistribution value="Present" recordCount="4.0"/>
            <ScoreDistribution value="Absent" recordCount="292.0"/>
          </Node>
          <Node id="508" score="Absent" recordCount="402.0">
            <SimplePredicate field="nom_nivell" operator="equal" value="CFGM Admin"/>
            <ScoreDistribution value="Present" recordCount="63.0"/>
            <ScoreDistribution value="Absent" recordCount="339.0"/>
            <Node id="509" score="Absent" recordCount="73.0">
              <SimplePredicate field="assistenciaMateixaHora2WeekBefore" operator="equal" value="NA"/>
              <ScoreDistribution value="Present" recordCount="24.0"/>
              <ScoreDistribution value="Absent" recordCount="49.0"/>
              <Node id="510" score="Present" recordCount="36.0">
                <SimplePredicate field="assistenciaMateixaHora1WeekBefore" operator="equal" value="Present"/>
                <ScoreDistribution value="Present" recordCount="18.0"/>
                <ScoreDistribution value="Absent" recordCount="18.0"/>
                <Node id="511" score="Present" recordCount="20.0">
                  <SimplePredicate field="assistenciaMateixaHora3WeekBefore" operator="equal" value="NA"/>
                  <ScoreDistribution value="Present" recordCount="11.0"/>
                  <ScoreDistribution value="Absent" recordCount="9.0"/>
                </Node>
                <Node id="512" score="Present" recordCount="14.0">
                  <SimplePredicate field="assistenciaMateixaHora3WeekBefore" operator="equal" value="Present"/>
                  <ScoreDistribution value="Present" recordCount="7.0"/>
                  <ScoreDistribution value="Absent" recordCount="7.0"/>
                </Node>
                <Node id="513" score="Absent" recordCount="2.0">
                  <SimplePredicate field="assistenciaMateixaHora3WeekBefore" operator="equal" value="Absent"/>
                  <ScoreDistribution value="Present" recordCount="0.0"/>
                  <ScoreDistribution value="Absent" recordCount="2.0"/>
                </Node>
              </Node>
              <Node id="514" score="Absent" recordCount="11.0">
                <SimplePredicate field="assistenciaMateixaHora1WeekBefore" operator="equal" value="Absent"/>
                <ScoreDistribution value="Present" recordCount="1.0"/>
                <ScoreDistribution value="Absent" recordCount="10.0"/>
              </Node>
              <Node id="518" score="Absent" recordCount="26.0">
                <SimplePredicate field="assistenciaMateixaHora1WeekBefore" operator="equal" value="NA"/>
                <ScoreDistribution value="Present" recordCount="5.0"/>
                <ScoreDistribution value="Absent" recordCount="21.0"/>
              </Node>
            </Node>
            <Node id="522" score="Absent" recordCount="256.0">
              <SimplePredicate field="assistenciaMateixaHora2WeekBefore" operator="equal" value="Present"/>
              <ScoreDistribution value="Present" recordCount="33.0"/>
              <ScoreDistribution value="Absent" recordCount="223.0"/>
              <Node id="523" score="Absent" recordCount="175.0">
                <SimplePredicate field="assistenciaMateixaHora1WeekBefore" operator="equal" value="Present"/>
                <ScoreDistribution value="Present" recordCount="17.0"/>
                <ScoreDistribution value="Absent" recordCount="158.0"/>
              </Node>
              <Node id="527" score="Absent" recordCount="55.0">
                <SimplePredicate field="assistenciaMateixaHora1WeekBefore" operator="equal" value="Absent"/>
                <ScoreDistribution value="Present" recordCount="4.0"/>
                <ScoreDistribution value="Absent" recordCount="51.0"/>
              </Node>
              <Node id="531" score="Absent" recordCount="26.0">
                <SimplePredicate field="assistenciaMateixaHora1WeekBefore" operator="equal" value="NA"/>
                <ScoreDistribution value="Present" recordCount="12.0"/>
                <ScoreDistribution value="Absent" recordCount="14.0"/>
                <Node id="532" score="Absent" recordCount="4.0">
                  <SimplePredicate field="assistenciaMateixaHora3WeekBefore" operator="equal" value="NA"/>
                  <ScoreDistribution value="Present" recordCount="1.0"/>
                  <ScoreDistribution value="Absent" recordCount="3.0"/>
                </Node>
                <Node id="533" score="Present" recordCount="9.0">
                  <SimplePredicate field="assistenciaMateixaHora3WeekBefore" operator="equal" value="Present"/>
                  <ScoreDistribution value="Present" recordCount="6.0"/>
                  <ScoreDistribution value="Absent" recordCount="3.0"/>
                </Node>
                <Node id="534" score="Absent" recordCount="13.0">
                  <SimplePredicate field="assistenciaMateixaHora3WeekBefore" operator="equal" value="Absent"/>
                  <ScoreDistribution value="Present" recordCount="5.0"/>
                  <ScoreDistribution value="Absent" recordCount="8.0"/>
                </Node>
              </Node>
            </Node>
            <Node id="535" score="Absent" recordCount="73.0">
              <SimplePredicate field="assistenciaMateixaHora2WeekBefore" operator="equal" value="Absent"/>
              <ScoreDistribution value="Present" recordCount="6.0"/>
              <ScoreDistribution value="Absent" recordCount="67.0"/>
              <Node id="536" score="Absent" recordCount="32.0">
                <SimplePredicate field="assistenciaMateixaHora1WeekBefore" operator="equal" value="Present"/>
                <ScoreDistribution value="Present" recordCount="1.0"/>
                <ScoreDistribution value="Absent" recordCount="31.0"/>
              </Node>
              <Node id="540" score="Absent" recordCount="31.0">
                <SimplePredicate field="assistenciaMateixaHora1WeekBefore" operator="equal" value="Absent"/>
                <ScoreDistribution value="Present" recordCount="2.0"/>
                <ScoreDistribution value="Absent" recordCount="29.0"/>
              </Node>
              <Node id="544" score="Absent" recordCount="10.0">
                <SimplePredicate field="assistenciaMateixaHora1WeekBefore" operator="equal" value="NA"/>
                <ScoreDistribution value="Present" recordCount="3.0"/>
                <ScoreDistribution value="Absent" recordCount="7.0"/>
                <Node id="545" score="Absent" recordCount="5.0">
                  <SimplePredicate field="assistenciaMateixaHora3WeekBefore" operator="equal" value="NA"/>
                  <ScoreDistribution value="Present" recordCount="1.0"/>
                  <ScoreDistribution value="Absent" recordCount="4.0"/>
                </Node>
                <Node id="546" score="Absent" recordCount="3.0">
                  <SimplePredicate field="assistenciaMateixaHora3WeekBefore" operator="equal" value="Present"/>
                  <ScoreDistribution value="Present" recordCount="0.0"/>
                  <ScoreDistribution value="Absent" recordCount="3.0"/>
                </Node>
                <Node id="547" score="Present" recordCount="2.0">
                  <SimplePredicate field="assistenciaMateixaHora3WeekBefore" operator="equal" value="Absent"/>
                  <ScoreDistribution value="Present" recordCount="2.0"/>
                  <ScoreDistribution value="Absent" recordCount="0.0"/>
                </Node>
              </Node>
            </Node>
          </Node>
          <Node id="548" score="Absent" recordCount="474.0">
            <SimplePredicate field="nom_nivell" operator="equal" value="CFGM Infor"/>
            <ScoreDistribution value="Present" recordCount="28.0"/>
            <ScoreDistribution value="Absent" recordCount="446.0"/>
          </Node>
        </Node>
        <Node id="576" score="Absent" recordCount="999.0">
          <SimplePredicate field="hora_inici" operator="equal" value="16:45:00"/>
          <ScoreDistribution value="Present" recordCount="194.0"/>
          <ScoreDistribution value="Absent" recordCount="805.0"/>
          <Node id="578" score="Absent" recordCount="416.0">
            <SimplePredicate field="nom_nivell" operator="equal" value="CFGS Admin"/>
            <ScoreDistribution value="Present" recordCount="108.0"/>
            <ScoreDistribution value="Absent" recordCount="308.0"/>
            <Node id="579" score="Absent" recordCount="75.0">
              <SimplePredicate field="assistenciaMateixaHora2WeekBefore" operator="equal" value="NA"/>
              <ScoreDistribution value="Present" recordCount="20.0"/>
              <ScoreDistribution value="Absent" recordCount="55.0"/>
              <Node id="580" score="Absent" recordCount="28.0">
                <SimplePredicate field="assistenciaMateixaHora3WeekBefore" operator="equal" value="NA"/>
                <ScoreDistribution value="Present" recordCount="11.0"/>
                <ScoreDistribution value="Absent" recordCount="17.0"/>
                <Node id="581" score="Present" recordCount="11.0">
                  <SimplePredicate field="assistenciaMateixaHora1WeekBefore" operator="equal" value="Present"/>
                  <ScoreDistribution value="Present" recordCount="6.0"/>
                  <ScoreDistribution value="Absent" recordCount="5.0"/>
                </Node>
                <Node id="582" score="Absent" recordCount="8.0">
                  <SimplePredicate field="assistenciaMateixaHora1WeekBefore" operator="equal" value="Absent"/>
                  <ScoreDistribution value="Present" recordCount="3.0"/>
                  <ScoreDistribution value="Absent" recordCount="5.0"/>
                </Node>
                <Node id="583" score="Absent" recordCount="9.0">
                  <SimplePredicate field="assistenciaMateixaHora1WeekBefore" operator="equal" value="NA"/>
                  <ScoreDistribution value="Present" recordCount="2.0"/>
                  <ScoreDistribution value="Absent" recordCount="7.0"/>
                </Node>
              </Node>
              <Node id="584" score="Absent" recordCount="37.0">
                <SimplePredicate field="assistenciaMateixaHora3WeekBefore" operator="equal" value="Present"/>
                <ScoreDistribution value="Present" recordCount="8.0"/>
                <ScoreDistribution value="Absent" recordCount="29.0"/>
              </Node>
              <Node id="588" score="Absent" recordCount="10.0">
                <SimplePredicate field="assistenciaMateixaHora3WeekBefore" operator="equal" value="Absent"/>
                <ScoreDistribution value="Present" recordCount="1.0"/>
                <ScoreDistribution value="Absent" recordCount="9.0"/>
              </Node>
            </Node>
            <Node id="592" score="Absent" recordCount="280.0">
              <SimplePredicate field="assistenciaMateixaHora2WeekBefore" operator="equal" value="Present"/>
              <ScoreDistribution value="Present" recordCount="68.0"/>
              <ScoreDistribution value="Absent" recordCount="212.0"/>
            </Node>
            <Node id="605" score="Absent" recordCount="61.0">
              <SimplePredicate field="assistenciaMateixaHora2WeekBefore" operator="equal" value="Absent"/>
              <ScoreDistribution value="Present" recordCount="20.0"/>
              <ScoreDistribution value="Absent" recordCount="41.0"/>
              <Node id="606" score="Absent" recordCount="28.0">
                <SimplePredicate field="assistenciaMateixaHora1WeekBefore" operator="equal" value="Present"/>
                <ScoreDistribution value="Present" recordCount="12.0"/>
                <ScoreDistribution value="Absent" recordCount="16.0"/>
              </Node>
              <Node id="610" score="Absent" recordCount="26.0">
                <SimplePredicate field="assistenciaMateixaHora1WeekBefore" operator="equal" value="Absent"/>
                <ScoreDistribution value="Present" recordCount="4.0"/>
                <ScoreDistribution value="Absent" recordCount="22.0"/>
              </Node>
              <Node id="614" score="Present" recordCount="7.0">
                <SimplePredicate field="assistenciaMateixaHora1WeekBefore" operator="equal" value="NA"/>
                <ScoreDistribution value="Present" recordCount="4.0"/>
                <ScoreDistribution value="Absent" recordCount="3.0"/>
                <Node id="616" score="Present" recordCount="5.0">
